-1.26614,0.0,0.0,0.0,0.0,0.0,0.0,0.0,0.0,0.0,0.0,0.0,0.0,0.00685,0.00892,0.00633,0.00633,0.0,0.0,0.0,0.0,0.0,0.0,0.0,0.0,0.0,0.0,0.0,0.0,0.0,0.0,0.0,0.0,0.0,0.00633,0.01209,0.01531,0.02116,0.01075,0.01187,0.01381,0.01459,0.01906,0.01853,0.00157,-0.01642,0.00941,0.01405,0.02037,0.00437,-0.07022,-0.03103,0.00679,0.0,0.0,0.0,0.0,0.0,0.0,0.00633,0.00633,0.00928,-0.0176,0.0247,0.00719,-0.02013,-0.02426,-0.004,-0.00202,-0.0011,0.00839,0.01428,0.00428,-0.01952,-0.00879,0.01,0.00063,-0.02384,-0.03508,-0.01354,0.01508,0.01781,0.01045,0.0,0.0,0.0,0.0,0.0068,0.0103,0.01722,-0.01375,0.00186,-0.01867,-0.01205,-0.00042,0.00618,0.0079,-0.00354,0.00945,0.01715,0.0132,0.00333,-0.00295,-0.0115,-0.01894,-0.04472,-0.03116,-0.01514,-0.0062,0.00129,-0.02305,0.00633,0.0,0.0,0.00633,0.01046,0.00336,-0.02678,0.00137,0.02061,0.01128,0.01477,0.01592,0.01666,0.02376,0.04144,0.04238,0.05459,0.06292,0.07041,0.04612,0.02543,0.01545,-0.00842,-0.02666,0.01448,-0.02176,-0.03095,-0.02493,0.00234,0.0,0.0,0.0,0.01445,0.01346,0.005,0.01893,0.01998,0.02337,0.01059,0.03003,0.04784,0.07097,0.08601,0.09169,0.10456,0.10378,0.09664,0.0983,0.07866,0.0555,0.03827,-0.00043,-0.01884,-0.03527,-0.01193,-0.02861,-0.03624,-0.02495,0.0,0.00633,0.01538,0.02525,0.00762,0.0215,0.01626,0.01767,0.02859,0.05591,0.08915,0.10786,0.12135,0.1307,0.13657,0.12911,0.125,0.12657,0.12616,0.10527,0.07063,0.02181,-0.0079,-0.0255,-0.03218,-0.06228,-0.04162,0.01294,0.0,0.01902,0.02516,0.03711,0.01435,0.02767,0.01982,0.0243,0.04212,0.06367,0.10696,0.12547,0.11637,0.09734,0.0883,0.07103,0.06474,0.08587,0.12007,0.12152,0.0889,0.04736,-0.01769,-0.03252,-0.05805,-0.04534,-0.02504,0.01703,0.04021,0.02115,0.02704,0.02788,0.01732,-0.00119,0.00767,0.02452,0.04985,0.07134,0.07968,0.07225,0.0563,0.0339,0.01706,-0.00022,-0.00108,0.03814,0.09321,0.12065,0.10579,0.05288,-0.00528,-0.03807,-0.07246,-0.07275,-0.02882,-0.03414,0.01042,0.01937,0.01005,0.00751,-0.02242,-0.0368,-0.01796,0.00851,0.05291,0.07673,0.06647,0.03278,0.02452,-0.00576,-0.02806,-0.06191,-0.05852,0.00313,0.09548,0.13738,0.13044,0.08358,0.04982,0.01965,-0.05686,-0.09736,-0.02441,-0.0089,0.01093,0.01268,0.0066,-0.00696,-0.04558,-0.03687,-0.00591,0.03993,0.06947,0.07726,0.06309,0.03981,0.04491,0.02447,-0.04392,-0.103,-0.08712,-0.01405,0.08997,0.11978,0.13301,0.12561,0.13646,0.09983,-0.00442,-0.0653,-0.02251,0.00711,0.01016,-0.00748,-0.0077,-0.02713,-0.06165,-0.0145,0.03309,0.07323,0.09831,0.09598,0.08708,0.07244,0.0483,-0.02158,-0.10473,-0.13402,-0.08872,-0.00666,0.05796,0.07087,0.10272,0.15475,0.2095,0.18972,0.0718,-0.03798,-0.00829,0.01411,0.00633,-0.0011,-8e-05,-0.00794,-0.03769,0.00461,0.0655,0.10576,0.12421,0.12042,0.09927,0.07488,0.00995,-0.1037,-0.15424,-0.14223,-0.0843,-0.0046,0.02317,0.03646,0.09731,0.17149,0.2486,0.2445,0.1196,-0.01117,0.02352,0.0082,0.00633,0.01222,0.02324,0.00532,0.00072,0.04843,0.09665,0.14841,0.15012,0.14053,0.09609,0.0444,-0.0384,-0.12896,-0.13919,-0.1223,-0.05947,-0.02663,-0.01838,0.02059,0.11296,0.1872,0.23725,0.21273,0.13758,-0.00886,-0.01238,-0.02753,0.0,0.00702,0.01963,-0.01033,-0.00206,0.09304,0.11332,0.15883,0.1792,0.16417,0.0989,0.03298,-0.05337,-0.12786,-0.13939,-0.11645,-0.07524,-0.06412,-0.03662,0.03396,0.13512,0.21193,0.22153,0.17664,0.12458,0.01151,-0.00362,0.00459,0.0,0.0,0.00346,-0.03805,0.02541,0.1238,0.12836,0.16948,0.17736,0.17109,0.11852,0.02688,-0.07345,-0.15615,-0.16434,-0.13256,-0.0976,-0.05743,0.01659,0.08366,0.15518,0.20922,0.19067,0.14916,0.0931,0.00776,0.01568,-0.0083,0.0,0.0088,-0.00873,-0.01153,0.05005,0.12533,0.14951,0.18977,0.19232,0.15922,0.11779,0.04037,-0.06818,-0.17046,-0.17543,-0.14579,-0.09045,-0.02903,0.07226,0.13868,0.18133,0.17752,0.15672,0.11909,0.04706,-0.01489,-0.01046,-0.02156,0.0,0.01009,-0.01671,-0.01122,0.06601,0.13307,0.17431,0.19303,0.19736,0.14831,0.10819,0.02146,-0.0621,-0.14958,-0.1653,-0.12504,-0.06065,0.03202,0.13609,0.18669,0.17639,0.14008,0.13124,0.07198,0.01545,-0.00288,-0.00338,-0.00455,0.00633,-0.01894,0.01388,-0.03189,0.04861,0.11685,0.15131,0.19309,0.20731,0.16396,0.09872,0.02855,-0.05556,-0.12348,-0.12477,-0.08766,-0.00186,0.09493,0.19601,0.20001,0.15847,0.12584,0.09236,0.04101,-0.00447,0.02897,0.01715,0.00219,0.0,-0.01962,0.01666,-0.00034,0.01542,0.09493,0.13414,0.18706,0.20091,0.18206,0.11547,0.05464,-0.02393,-0.06111,-0.06693,-0.03196,0.06904,0.15095,0.20685,0.17605,0.13431,0.09744,0.06146,0.03159,0.01818,0.02619,0.01484,0.00889,0.0,0.00576,0.01058,-0.00341,0.00343,0.06154,0.11583,0.14871,0.17008,0.1666,0.13162,0.09656,0.05437,0.02255,0.0026,0.03789,0.11172,0.15917,0.17604,0.15475,0.10757,0.07622,0.03578,0.02085,0.01795,0.02705,0.00839,0.00633,-0.02492,0.01031,-0.0061,-0.00533,0.01717,0.0502,0.09039,0.11282,0.14504,0.15526,0.13792,0.12551,0.09856,0.0736,0.05897,0.08877,0.1352,0.13795,0.12563,0.12108,0.09831,0.05712,0.02657,0.00872,-0.01014,0.01257,-0.00101,0.00633,-0.02492,-0.02079,-0.00625,-0.00287,-0.0103,0.02116,0.05681,0.06686,0.08797,0.10385,0.1153,0.1177,0.08759,0.05691,0.05396,0.07511,0.10573,0.09989,0.10932,0.108,0.07735,0.06053,0.05063,0.00253,-0.02331,0.0028,0.01562,0.00633,0.0,0.0,0.00898,0.01887,0.0011,0.00413,0.04243,0.0425,0.02507,0.02959,0.02683,0.03272,0.02276,0.00901,0.01954,0.03889,0.05837,0.064,0.0706,0.06691,0.05753,0.05456,0.04912,0.02821,-0.00169,0.01895,0.01504,0.0,0.0,0.0,0.01252,-0.00892,-0.00158,-0.00399,0.00685,-0.01289,-0.05082,-0.06662,-0.08844,-0.09271,-0.10151,-0.08919,-0.05691,-0.00817,0.01643,0.03955,0.043,0.04486,0.04477,0.049,0.03306,0.02829,0.02153,0.01482,0.00737,0.0,0.0,0.0,-0.02023,-0.00393,-0.01464,-0.01346,-0.03864,-0.03976,-0.07222,-0.0698,-0.08472,-0.11315,-0.14873,-0.13334,-0.08274,-0.04689,-0.01,0.01829,0.03291,0.04126,0.02415,0.02225,0.00318,0.02131,0.01696,0.0088,0.00633,0.0,0.0,0.0,0.0,0.0,0.01863,-0.01221,-0.03151,-0.05122,-0.03116,-0.03807,-0.07625,-0.11015,-0.1243,-0.12676,-0.09414,-0.03529,-0.01855,-0.00813,0.00054,-0.01204,-0.00892,0.00056,-0.0303,0.00445,0.00797,0.00633,0.0,0.0,0.0,0.0,0.0,0.0,0.0,-0.00916,-0.02799,-0.02178,0.00814,0.02059,-0.01856,-0.04439,-0.06485,-0.03874,-0.03111,-0.00204,0.02326,0.0289,0.00862,-0.00069,0.01894,0.0146,0.01181,0.00895,0.0,0.0,0.0
0.0,-1.24878,0.0,0.0,0.0,0.0,0.0,0.0,0.0,0.0,0.0,0.0,0.0,0.0,0.00676,0.0088,0.00624,0.00624,0.0,0.0,0.0,0.0,0.0,0.0,0.0,0.0,0.0,0.0,0.0,0.0,0.0,0.0,0.0,0.0,0.0,0.00624,0.01193,0.0151,0.02087,-0.01308,-0.02163,-0.02279,-0.01376,-0.00469,0.00242,0.00059,-0.0257,-0.00731,0.00456,0.01906,-0.00239,-0.04721,-0.01398,0.0067,0.0,0.0,0.0,0.0,0.0,0.0,0.00624,0.00624,0.00915,-0.00322,0.02436,0.00724,-0.02956,-0.04935,-0.03727,-0.03015,-0.03642,-0.02733,-0.03557,-0.04693,-0.05317,-0.04435,-0.0269,-0.02084,-0.04916,-0.05321,-0.00818,0.01466,0.01757,0.01031,0.0,0.0,0.0,0.0,0.00671,0.01016,0.01699,-0.02302,-0.00817,-0.0354,-0.04841,-0.05332,-0.06655,-0.07583,-0.09106,-0.07446,-0.0774,-0.09544,-0.09704,-0.07525,-0.08643,-0.08874,-0.0918,-0.05784,-0.02458,-0.02164,-0.00844,-0.03363,0.00624,0.0,0.0,0.00624,0.01031,-0.00126,-0.02938,-0.0157,0.00291,-0.0295,-0.04461,-0.06731,-0.08158,-0.08955,-0.08016,-0.07324,-0.08292,-0.08842,-0.08412,-0.06092,-0.05279,-0.05009,-0.05514,-0.03704,-0.00418,-0.01867,-0.01578,-0.02758,0.00205,0.0,0.0,0.0,0.01425,-0.00846,-0.01008,-0.00144,-0.02105,-0.05191,-0.08728,-0.10247,-0.11316,-0.12247,-0.0991,-0.09418,-0.08278,-0.08191,-0.07528,-0.04413,-0.00631,-0.01611,-0.03047,-0.02116,0.00159,0.01231,0.02829,-0.00964,-0.02053,-0.02501,0.0,0.00624,0.00899,0.00602,-0.01233,-0.01604,-0.04371,-0.0849,-0.11911,-0.12692,-0.1194,-0.11944,-0.10809,-0.08615,-0.05006,-0.04443,-0.03654,-0.03032,-0.01132,-0.01329,-0.03396,-0.04408,-0.02212,-0.00676,0.0305,-0.00642,-0.0116,0.0127,0.0,0.01876,0.01164,0.01556,-0.02265,-0.00946,-0.04553,-0.07892,-0.10635,-0.12603,-0.10923,-0.10421,-0.09002,-0.03735,0.01619,0.02316,-0.00427,-0.01702,-0.00929,-0.00944,-0.04934,-0.07861,-0.06809,-0.03034,0.01436,-0.00737,-0.01322,0.0168,-0.02593,0.01544,0.00099,0.00619,-0.01561,-0.02771,-0.04774,-0.07288,-0.0967,-0.10588,-0.11547,-0.12297,-0.08658,-0.00801,0.0596,0.07356,0.01753,-0.00694,-0.00584,-0.02557,-0.06061,-0.10484,-0.11029,-0.06703,-0.02281,-0.02387,-0.01786,-0.03321,0.01028,0.01252,-0.00464,0.00137,-0.02761,-0.05537,-0.07938,-0.10168,-0.09601,-0.09641,-0.10685,-0.12312,-0.06874,0.00278,0.10865,0.11468,0.03739,-0.00181,-0.00012,-0.03235,-0.07799,-0.13511,-0.13511,-0.09905,-0.05995,-0.0424,-0.02441,-0.00911,0.01078,-0.00368,-0.00465,0.00169,-0.03169,-0.06332,-0.09251,-0.09735,-0.1116,-0.0889,-0.10137,-0.11193,-0.06916,0.04281,0.15915,0.15799,0.04441,-0.01056,-0.00439,-0.03812,-0.1029,-0.15793,-0.14719,-0.13461,-0.07972,-0.02416,-0.02289,0.00686,0.01002,-0.04777,-0.02206,-0.02406,-0.05348,-0.08837,-0.11,-0.12096,-0.1085,-0.08927,-0.09126,-0.09649,-0.07527,0.06099,0.1949,0.1931,0.05874,-0.02207,-0.01482,-0.05712,-0.12481,-0.17465,-0.16508,-0.14076,-0.08777,-0.02412,0.00858,0.01392,0.00624,-0.01718,-0.0087,-0.02353,-0.05837,-0.12123,-0.1285,-0.12481,-0.10177,-0.07767,-0.08105,-0.08694,-0.07624,0.08159,0.23756,0.20244,0.04217,-0.03846,-0.01006,-0.05727,-0.1218,-0.18495,-0.18315,-0.14319,-0.11564,-0.05252,0.02283,0.00792,0.00624,0.01206,0.02416,-0.01273,-0.05852,-0.12816,-0.14853,-0.12092,-0.09553,-0.0671,-0.07838,-0.08607,-0.0608,0.1492,0.27816,0.20057,0.01864,-0.04091,-0.01438,-0.05728,-0.14051,-0.21397,-0.21113,-0.16772,-0.11868,-0.04262,-0.01661,-0.02832,0.0,0.00693,0.01816,-0.01693,-0.05968,-0.13645,-0.17487,-0.16598,-0.11598,-0.07356,-0.07741,-0.08598,-0.02407,0.20164,0.2654,0.17615,-0.0129,-0.05693,-0.04012,-0.10287,-0.17594,-0.21295,-0.20958,-0.18972,-0.10644,-0.00834,-0.00738,0.00446,0.0,0.0,0.00026,-0.04095,-0.06475,-0.15809,-0.21076,-0.19551,-0.14385,-0.08836,-0.07088,-0.09016,-0.00566,0.16738,0.20287,0.12229,-0.03951,-0.0458,-0.04741,-0.1351,-0.2005,-0.21924,-0.20894,-0.18715,-0.11433,0.00142,0.00752,-0.00789,0.0,0.00868,-0.01664,-0.01234,-0.07826,-0.19385,-0.23886,-0.20835,-0.15363,-0.10434,-0.0791,-0.06399,0.03105,0.1405,0.16206,0.07043,-0.03802,-0.0558,-0.06071,-0.1422,-0.19628,-0.22647,-0.20241,-0.15861,-0.11821,-0.04145,-0.0234,-0.02071,0.0,0.00995,-0.02578,-0.03221,-0.09689,-0.2022,-0.24197,-0.22442,-0.16876,-0.13294,-0.08451,-0.04474,0.06292,0.15536,0.14264,0.05509,-0.04033,-0.06741,-0.0975,-0.15446,-0.20472,-0.237,-0.18287,-0.1616,-0.12529,-0.05942,-0.0297,-0.019,0.00624,-0.01914,0.01201,-0.0496,-0.10148,-0.18895,-0.23357,-0.21692,-0.17139,-0.13313,-0.09377,-0.01823,0.07726,0.14003,0.1275,0.02002,-0.06212,-0.09798,-0.11362,-0.16572,-0.2061,-0.20814,-0.17711,-0.15982,-0.11504,-0.03955,-0.00093,-0.00424,0.0,-0.01982,0.01406,-0.01452,-0.10624,-0.16429,-0.20658,-0.19047,-0.16191,-0.14265,-0.10171,-0.00759,0.06573,0.10408,0.06302,-0.01826,-0.07185,-0.11685,-0.14151,-0.17875,-0.20625,-0.19024,-0.16242,-0.12246,-0.06071,-0.02878,0.01026,0.00876,0.0,0.0056,-0.00334,-0.02124,-0.08126,-0.13383,-0.16418,-0.18084,-0.17673,-0.15542,-0.10393,-0.02154,0.02816,0.04803,0.00368,-0.03772,-0.08845,-0.13919,-0.1679,-0.1796,-0.19883,-0.1707,-0.14382,-0.08518,-0.03911,-0.01324,-0.01871,0.00624,0.03749,0.01425,-0.02461,-0.02466,-0.04114,-0.08198,-0.1067,-0.14022,-0.13734,-0.12046,-0.09793,-0.05734,-0.01167,0.0,-0.00639,-0.02618,-0.06046,-0.12183,-0.16659,-0.16483,-0.14379,-0.11967,-0.08965,-0.06353,-0.03882,-0.00906,-0.03334,0.00624,0.03749,0.03713,-0.0123,-0.00874,-0.03579,-0.04595,-0.06122,-0.08518,-0.07259,-0.05726,-0.04573,-0.03231,-0.02132,-0.0018,0.02776,0.03029,-0.00772,-0.07341,-0.10143,-0.08564,-0.06857,-0.05066,-0.02424,-0.03744,-0.04947,-0.0119,0.01535,0.00624,0.0,0.0,-0.00333,0.00714,-0.00475,-0.00625,0.01168,-0.00057,-0.00756,0.0164,0.02644,0.02589,0.01872,0.02937,0.07022,0.07026,0.03004,-0.02298,-0.05025,-0.03462,-0.02164,-0.01484,-0.00194,-0.00031,-0.02351,0.00289,0.01483,0.0,0.0,0.0,0.01235,-0.0227,-0.01188,0.00031,0.02358,0.02603,0.00417,0.0211,0.0276,0.01458,0.00942,0.02548,0.04056,0.03683,0.01626,0.00054,-0.02212,-0.02035,-0.02058,0.00697,0.00477,0.01843,0.00754,0.01462,0.00727,0.0,0.0,0.0,-0.01001,-0.02543,-0.00671,-0.00965,-0.02055,-0.00432,-0.0151,0.00752,0.01163,0.00713,-0.00886,0.00304,0.01667,0.00865,0.01428,0.00873,-0.00789,-0.02001,-0.02808,-0.0118,-0.02122,0.01103,0.01673,0.00868,0.00624,0.0,0.0,0.0,0.0,0.0,0.01837,0.00796,-0.00048,-0.00671,0.01851,0.02293,0.00973,-0.00307,-0.00725,-0.01512,-0.00318,0.01863,0.01033,-0.00637,-0.02323,-0.06085,-0.05433,-0.03157,-0.05345,-0.01354,0.00786,0.00624,0.0,0.0,0.0,0.0,0.0,0.0,0.0,-0.00547,-0.0129,-0.00225,0.01679,0.03295,0.00576,-0.00229,-0.01656,0.00495,0.00538,0.01999,0.03038,0.03224,0.0029,-0.0209,0.0158,0.0144,0.01164,0.00883,0.0,0.0
0.0,0.0,-1.33254,0.0,0.0,0.0,0.0,0.0,0.0,0.0,0.0,0.0,0.0,0.0,0.0,0.00721,0.00939,0.00666,0.00666,0.0,0.0,0.0,0.0,0.0,0.0,0.0,0.0,0.0,0.0,0.0,0.0,0.0,0.0,0.0,0.0,0.0,0.00666,0.01273,0.01611,0.02227,-0.00581,-0.00498,0.01652,0.0248,0.02142,0.00328,0.0044,0.0104,0.02294,0.00408,0.0191,-0.0106,-0.03719,-0.00294,0.00715,0.0,0.0,0.0,0.0,0.0,0.0,0.00666,0.00666,0.00977,-0.00588,0.02599,-0.00075,-0.02055,-0.02073,-0.00261,-0.00441,-0.00975,-0.0122,-0.01034,-0.02317,-0.05065,-0.03563,-0.01203,-0.01234,-0.04064,-0.03415,0.00514,0.02193,0.01875,0.011,0.0,0.0,0.0,0.0,0.00716,0.01084,0.01813,0.00177,0.01917,0.0186,0.05797,0.08725,0.1186,0.14193,0.14278,0.14237,0.12854,0.11197,0.07721,0.07222,0.05365,0.03115,0.01612,0.00467,0.01319,-0.00203,0.0055,-0.0155,0.00666,0.0,0.0,0.00666,0.011,-0.01367,-0.02557,0.03702,0.07063,0.09791,0.13299,0.16455,0.18872,0.21166,0.22363,0.1971,0.18053,0.17526,0.1758,0.1357,0.08567,0.05238,0.01748,-0.00397,0.01908,-0.02409,-0.02552,-0.00942,0.00293,0.0,0.0,0.0,0.01521,-0.01521,-0.00365,0.02726,0.04592,0.0976,0.14288,0.17535,0.191,0.21343,0.21299,0.20187,0.19694,0.1875,0.19498,0.18323,0.13225,0.08268,0.05134,0.02286,0.01449,-0.00595,0.00664,-0.01235,-0.02915,-0.02461,0.0,0.00666,0.01092,0.00648,-0.00484,0.03189,0.03512,0.07718,0.11568,0.14686,0.1877,0.20066,0.18614,0.1731,0.16713,0.14409,0.14441,0.13912,0.11374,0.08608,0.06863,0.03093,0.01215,-0.00925,-0.00652,-0.02952,-0.02559,0.01385,0.0,0.02002,0.01215,0.01214,0.0022,0.0391,0.05547,0.05734,0.08661,0.11301,0.16844,0.15695,0.11129,0.07466,0.0649,0.04351,0.05097,0.0544,0.05789,0.06864,0.04895,0.0239,-0.00214,-0.00734,-0.02029,-0.02957,-0.01071,0.01792,-0.05655,0.01854,0.00189,0.00251,0.00971,-0.00023,0.02813,0.03764,0.05648,0.06584,0.07537,0.04382,-0.00197,-0.02238,-0.02148,-0.04091,-0.05851,-0.02359,0.01605,0.03919,0.03537,0.00595,-0.00716,-0.00363,-0.03161,-0.03777,-0.02062,-0.0317,0.01096,0.01616,0.00118,-0.00403,-0.02526,-0.035,-0.01857,0.00725,0.02899,0.01951,-0.00571,-0.04323,-0.05793,-0.07291,-0.0654,-0.07028,-0.06909,-0.04871,0.01188,0.02709,0.01701,-0.00274,0.01699,0.03003,-0.02515,-0.04583,-0.03445,-0.00336,0.0115,0.00137,0.00352,-0.00156,-0.02547,-0.02129,-0.00975,0.00643,-0.00081,-0.00941,-0.04707,-0.0672,-0.06943,-0.06442,-0.06488,-0.0763,-0.06276,-0.0415,0.01101,0.01926,0.01225,0.0286,0.0622,0.0527,0.01714,-0.00586,-0.01369,0.01004,0.01069,-0.01706,0.00546,0.00661,-0.00968,-0.00455,-0.00292,-0.00126,-0.01503,-0.03533,-0.05532,-0.05193,-0.05749,-0.06973,-0.07549,-0.0645,-0.04503,-0.03288,-0.00749,0.00796,0.03352,0.0679,0.07813,0.06342,0.03594,0.02566,0.00099,0.01485,0.00666,-0.01065,0.01004,0.01749,0.03052,0.00812,0.00934,-0.00202,-0.02208,-0.03986,-0.05289,-0.03104,-0.05345,-0.09611,-0.08806,-0.06909,-0.06299,-0.03381,0.00526,0.03367,0.08239,0.0922,0.0749,0.05712,0.03085,0.0597,0.02762,0.01837,0.00666,0.01287,0.02463,0.00904,0.04416,0.0199,0.01384,0.02217,-0.01312,-0.02629,-0.03216,-0.01606,-0.03484,-0.06678,-0.06035,-0.07653,-0.05793,-0.00559,0.03863,0.08081,0.11918,0.0922,0.055,0.03509,0.04056,0.0608,0.04383,0.03855,0.0,0.00739,0.02141,0.01019,0.04688,0.02646,0.02473,0.03349,0.03082,0.01278,0.00763,0.02482,0.00033,-0.03568,-0.0612,-0.08406,-0.04072,0.01535,0.05508,0.10256,0.12069,0.07621,0.03777,0.01945,0.03347,0.05758,0.04208,0.00888,0.0,0.0,0.00583,-0.00238,0.0505,0.05574,0.06352,0.0775,0.07242,0.06813,0.06686,0.06028,0.00047,-0.05674,-0.09162,-0.08976,-0.01947,0.04491,0.09563,0.12995,0.11412,0.06729,0.03923,0.04231,0.04439,0.07444,0.0501,0.01787,0.0,0.00926,-0.02156,0.02302,0.06895,0.09505,0.10701,0.1384,0.13453,0.13168,0.11988,0.08569,0.01599,-0.06489,-0.08848,-0.05942,0.00735,0.05356,0.15464,0.17724,0.13839,0.08108,0.07353,0.07638,0.0657,0.11315,0.05309,0.02618,0.0,0.01062,-0.03094,0.04463,0.08931,0.13257,0.16529,0.19607,0.20304,0.16846,0.13211,0.0795,0.03089,-0.02631,-0.03521,-0.00809,0.02523,0.09225,0.21318,0.23624,0.16649,0.10407,0.12675,0.10841,0.11865,0.12927,0.0351,0.02705,0.00666,0.03918,0.02239,0.04669,0.1135,0.16833,0.20903,0.24013,0.23129,0.17814,0.13938,0.10651,0.04286,0.0029,-0.0153,-0.01001,0.04363,0.15145,0.27874,0.28079,0.20089,0.16267,0.15692,0.17823,0.17578,0.13131,0.04782,0.01651,0.0,0.03858,0.02212,0.06799,0.12901,0.18948,0.24023,0.26747,0.26162,0.2121,0.15387,0.1273,0.07285,0.01658,-0.02321,-0.01577,0.08163,0.20154,0.2797,0.27456,0.21988,0.21017,0.19679,0.22037,0.1986,0.1261,0.05631,0.00935,0.0,0.01619,-0.00682,0.04701,0.1235,0.18485,0.23695,0.25455,0.25322,0.21602,0.16429,0.13858,0.08697,0.01449,-0.04316,-0.01385,0.10418,0.19425,0.24733,0.24227,0.20088,0.20346,0.21048,0.21629,0.1811,0.09435,0.05797,0.00666,-0.02459,0.01095,-0.02273,0.02995,0.11364,0.15789,0.18224,0.21113,0.21774,0.19429,0.13022,0.09341,0.04193,-0.02801,-0.06038,0.00674,0.11266,0.16584,0.18291,0.18215,0.18604,0.19412,0.212,0.20385,0.14354,0.07954,0.05407,0.00666,-0.02459,-0.02036,0.01493,0.0279,0.07549,0.11457,0.11837,0.128,0.12986,0.10922,0.07181,0.03017,-0.01567,-0.05543,-0.04716,0.02151,0.08467,0.09887,0.11757,0.13477,0.14296,0.14774,0.16567,0.14604,0.10984,0.08048,0.01984,0.00666,0.0,0.0,-0.02285,0.00642,0.01944,0.05164,0.04449,0.02212,-0.00952,-0.02718,-0.04027,-0.05162,-0.06837,-0.07768,-0.05213,-0.01583,0.01206,0.02395,0.03501,0.05546,0.07219,0.07861,0.07992,0.06202,0.0044,0.02851,0.01583,0.0,0.0,0.0,0.01318,-0.02095,-0.0196,-0.02155,-0.00941,-0.02702,-0.06456,-0.08215,-0.09655,-0.09541,-0.0965,-0.08373,-0.06189,-0.0234,-0.0183,-0.00783,0.00217,0.01774,0.01972,0.03329,0.01753,0.01796,-0.00274,0.0156,0.00776,0.0,0.0,0.0,-0.047,-0.0395,-0.02455,-0.04288,-0.04442,-0.0528,-0.08266,-0.0705,-0.0733,-0.09353,-0.13828,-0.13668,-0.09999,-0.06252,-0.02065,-0.00393,0.00017,0.01614,0.01733,0.01346,-0.01662,0.00628,0.01785,0.00926,0.00666,0.0,0.0,0.0,0.0,0.0,0.01961,-0.00379,-0.0346,-0.06036,-0.02636,-0.02773,-0.0626,-0.09532,-0.11066,-0.12396,-0.10532,-0.03934,-0.01592,-0.0142,-0.00764,-0.01884,-0.0154,-0.01433,-0.04255,-0.00744,0.00839,0.00666,0.0,0.0,0.0,0.0,0.0,0.0,0.0,-0.02369,-0.04962,-0.02779,0.01542,0.03101,-0.0066,-0.02862,-0.05992,-0.05207,-0.04632,-0.01035,0.02649,0.02726,0.00323,0.00035,0.0196,0.01537,0.01242,0.00942,0.0
0.0,0.0,0.0,-1.20411,0.0,0.0,0.0,0.0,0.0,0.0,0.0,0.0,0.0,0.0,0.0,0.0,0.00652,0.00849,0.00602,0.00602,0.0,0.0,0.0,0.0,0.0,0.0,0.0,0.0,0.0,0.0,0.0,0.0,0.0,0.0,0.0,0.0,0.0,0.00602,0.0115,0.01456,0.02012,0.00494,0.00784,0.01631,0.01798,0.01352,0.01398,0.01534,0.0029,0.00676,0.00311,0.01892,0.00489,-0.02447,-0.00447,0.00646,0.0,0.0,0.0,0.0,0.0,0.0,0.00602,0.00602,0.00882,-0.01068,0.02349,0.00855,0.00156,0.00414,0.01483,0.02384,0.03388,0.03875,0.04563,0.03644,0.01968,0.02005,0.02964,0.02587,0.00717,-0.00065,0.01462,0.02117,0.01694,0.00994,0.0,0.0,0.0,0.0,0.00647,0.0098,0.01638,0.04248,0.02971,0.00376,-0.02012,-0.0218,-0.01801,0.00059,0.02354,0.04413,0.04871,0.04251,0.03848,0.05187,0.04277,0.03449,0.0203,0.01788,0.00539,-0.00278,0.00573,-0.00918,0.00602,0.0,0.0,0.00602,0.00994,-0.03029,-0.02647,0.01212,0.0385,0.03408,0.04785,0.06255,0.07395,0.08703,0.10714,0.1019,0.07759,0.06019,0.04856,0.04028,0.01863,-0.00486,-0.03462,-0.04423,-0.0216,-0.03606,-0.02011,-0.0086,0.00328,0.0,0.0,0.0,0.01374,-0.02008,0.01308,0.04472,0.07792,0.11616,0.12562,0.15023,0.16342,0.17728,0.18457,0.16571,0.14387,0.10789,0.07657,0.04369,0.01672,-0.00906,-0.04409,-0.06975,-0.05946,-0.04728,-0.0048,4e-05,-0.02741,-0.02525,0.0,0.00602,0.00124,0.01893,0.04248,0.07091,0.11193,0.12769,0.13819,0.15675,0.17064,0.16124,0.14496,0.13055,0.1329,0.11623,0.08734,0.05205,0.02446,-0.00986,-0.03845,-0.07781,-0.07847,-0.06682,-0.02353,-0.01368,-0.02304,0.01209,0.0,0.01809,-0.00264,0.01584,0.04064,0.05616,0.07145,0.07743,0.08087,0.07873,0.07799,0.05525,0.02663,0.00593,0.00902,0.01375,0.01138,-0.01137,-0.01272,-0.02659,-0.05878,-0.0969,-0.11254,-0.08473,-0.03628,-0.00809,-0.01279,0.0162,-0.02537,0.01194,-0.02084,-0.00503,0.00893,0.01551,0.01336,0.00867,0.00161,-0.01341,-0.03917,-0.07247,-0.10363,-0.1134,-0.08819,-0.05819,-0.04657,-0.0375,-0.03423,-0.06313,-0.08547,-0.11991,-0.13,-0.10586,-0.05845,-0.03373,-0.02148,-0.0091,0.00991,0.01504,-0.02345,-0.02505,-0.04878,-0.04299,-0.05352,-0.06368,-0.07071,-0.08518,-0.12173,-0.16439,-0.16502,-0.1586,-0.0914,-0.04898,-0.02192,-0.00424,-0.01636,-0.06593,-0.09733,-0.13194,-0.12334,-0.09585,-0.06572,-0.04016,-0.01613,-0.00064,0.01039,-0.00832,-0.01459,-0.02841,-0.08444,-0.08549,-0.08396,-0.07429,-0.10692,-0.11676,-0.1661,-0.18275,-0.15165,-0.07259,0.02107,0.05682,0.0546,0.03363,-0.01517,-0.08857,-0.12267,-0.1295,-0.09713,-0.08573,-0.04551,0.00029,-0.00245,0.0099,0.00966,-0.03306,-0.01432,-0.02736,-0.08503,-0.07658,-0.0652,-0.07663,-0.10428,-0.12704,-0.14913,-0.12504,-0.06067,0.05015,0.12932,0.13497,0.10491,0.04008,-0.03688,-0.11352,-0.14003,-0.12492,-0.08016,-0.05844,-0.02396,0.00641,0.00043,0.01342,0.00602,-0.01299,-0.00472,-0.01638,-0.0484,-0.05308,-0.04751,-0.06542,-0.09585,-0.10342,-0.08275,-0.01755,0.07013,0.13088,0.16844,0.1543,0.10907,0.02543,-0.05897,-0.12571,-0.12916,-0.10328,-0.05783,-0.02838,-0.02346,0.00479,0.02227,0.00818,0.00602,0.01163,0.02035,-0.01446,-0.02494,-0.03541,-0.04569,-0.04325,-0.07209,-0.06811,-0.02346,0.05933,0.12109,0.1442,0.15866,0.1407,0.09441,0.01297,-0.05799,-0.08885,-0.07914,-0.07024,-0.04088,-0.02436,-0.0095,-5e-05,-0.00904,-0.02352,0.0,0.00668,0.01848,-0.02059,-0.03311,-0.04299,-0.06582,-0.06669,-0.05919,-0.04673,-0.00678,0.04857,0.0691,0.08297,0.10287,0.09431,0.03659,-0.0103,-0.03991,-0.04312,-0.03645,-0.02559,-0.01412,-0.01486,0.00946,0.00957,-0.007,0.00453,0.0,0.0,0.01621,-0.01342,-0.01905,-0.04314,-0.08339,-0.0751,-0.06579,-0.03522,-0.0135,-0.00137,0.00858,0.01664,0.02785,0.01137,-0.03518,-0.04281,-0.0225,-0.00368,0.01074,0.00507,0.01157,0.00573,0.01964,0.01759,0.00586,0.0013,0.0,0.00837,0.03927,0.04247,-0.00995,-0.06062,-0.09007,-0.06196,-0.04785,-0.02255,-0.01271,-0.01418,-0.0137,-0.02812,-0.01833,-0.05291,-0.07993,-0.07153,-0.00462,0.04014,0.05512,0.03169,0.03985,0.03671,0.01591,0.00377,-0.00011,-0.00375,0.0,0.0096,0.04328,0.05551,-0.00561,-0.06769,-0.07373,-0.05934,-0.02928,-0.01002,0.00694,-0.00172,-0.00122,-0.01378,-0.049,-0.09008,-0.11566,-0.06631,0.01099,0.06809,0.06954,0.05302,0.07211,0.0374,0.00382,-0.00187,-0.00245,0.00378,0.00602,-0.024,0.0348,0.06926,-0.00512,-0.05552,-0.04627,-0.03125,-0.00584,0.00798,0.01288,0.01991,-0.00321,-0.03512,-0.07485,-0.12719,-0.09461,-0.02951,0.05716,0.08295,0.07731,0.09356,0.08229,0.01782,-0.00765,0.00201,0.00983,0.0057,0.0,-0.02466,0.0428,0.06301,-0.01372,-0.03952,-0.02585,-0.00333,0.00424,0.01262,0.01822,0.02369,-0.00462,-0.05264,-0.11037,-0.12321,-0.04995,0.01934,0.09088,0.10654,0.08775,0.08625,0.05153,-0.00299,-0.00874,-0.00023,0.01209,0.00845,0.0,0.00445,0.05905,0.05205,0.014,-0.01486,-0.01251,0.00543,0.01342,0.01618,0.02144,0.01565,-0.01652,-0.06349,-0.09158,-0.07144,0.01295,0.06684,0.1182,0.1094,0.07788,0.04988,0.01082,-0.01528,-0.02254,0.005,-0.00928,0.00602,-0.02523,0.0097,0.04027,0.05503,0.04558,0.00651,0.01366,0.01567,0.02035,0.02656,0.00369,-0.00199,-0.00501,-0.0288,-0.03454,0.0178,0.08601,0.10189,0.09703,0.07647,0.06181,0.0257,-0.01654,-0.04628,-0.05346,-0.00497,-0.01643,0.00602,-0.02523,-0.02119,0.01527,0.05894,0.03916,0.01397,0.02445,0.02476,0.03001,0.04064,0.0323,0.02662,0.01437,0.00377,0.021,0.06392,0.09157,0.0811,0.07393,0.07879,0.05684,0.02391,0.00467,-0.04127,-0.06658,-0.01993,0.0147,0.00602,0.0,0.0,0.04056,0.07375,0.04931,0.03646,0.04105,0.02932,0.01458,0.03177,0.04331,0.04402,0.02891,0.0226,0.0297,0.0436,0.04839,0.04307,0.05076,0.04989,0.044,0.03157,0.02452,0.00911,-0.01371,0.0072,0.0143,0.0,0.0,0.0,0.01191,0.03682,0.03438,0.01981,0.03858,0.03639,0.00547,-0.00075,-0.0128,-0.02055,-0.03522,-0.03364,-0.01666,0.01404,0.02103,0.02436,0.011,0.00711,0.0177,0.04761,0.03272,0.02287,0.01683,0.0141,0.00701,0.0,0.0,0.0,-0.01145,-0.03245,-0.00554,-0.02196,-0.04199,-0.04439,-0.07377,-0.06926,-0.07447,-0.09574,-0.13692,-0.13525,-0.10034,-0.06426,-0.02143,0.00575,-0.00848,-0.0111,0.00543,0.02504,0.02809,0.02356,0.01613,0.00837,0.00602,0.0,0.0,0.0,0.0,0.0,0.01772,-0.02986,-0.05088,-0.07055,-0.03768,-0.04138,-0.07672,-0.10976,-0.11427,-0.12779,-0.10861,-0.04811,-0.02026,-0.01696,-0.01666,-0.02377,0.00443,0.03533,0.00284,0.00325,0.00758,0.00602,0.0,0.0,0.0,0.0,0.0,0.0,0.0,-0.01303,-0.03379,-0.024,0.01053,0.02283,-0.01361,-0.0404,-0.06272,-0.05181,-0.04452,-0.01222,0.01835,0.02255,-0.00616,-0.02003,0.01519,0.01389,0.01123,0.00851
0.0,0.0,0.0,0.0,-1.36342,0.0,0.0,0.0,0.0,0.0,0.0,0.0,0.0,0.0,0.0,0.0,0.0,0.00738,0.00961,0.00682,0.00682,0.0,0.0,0.0,0.0,0.0,0.0,0.0,0.0,0.0,0.0,0.0,0.0,0.0,0.0,0.0,0.0,0.0,0.00682,0.01302,0.01649,0.02278,-0.00553,-0.00602,0.00436,0.00654,0.00178,-0.00578,0.00237,-0.02066,-0.01359,-0.01264,0.01959,-0.00407,-0.07362,-0.02779,0.00732,0.0,0.0,0.0,0.0,0.0,0.0,0.00682,0.00682,0.00999,-0.02449,0.02659,-0.00643,-0.03612,-0.04379,-0.03619,-0.0443,-0.06494,-0.06501,-0.0622,-0.07852,-0.10271,-0.09115,-0.05316,-0.04427,-0.07676,-0.07621,-0.0148,0.01655,0.01918,0.01126,0.0,0.0,0.0,0.0,0.00733,0.01109,0.01855,-0.02384,-0.01248,-0.05911,-0.06895,-0.07397,-0.09096,-0.10656,-0.14308,-0.13733,-0.14002,-0.15247,-0.16315,-0.13744,-0.12906,-0.11896,-0.12549,-0.07344,-0.05649,-0.06243,-0.03944,-0.0637,0.00682,0.0,0.0,0.00682,0.01126,-0.02154,0.01475,-0.01403,-0.01332,-0.05507,-0.0563,-0.07473,-0.11287,-0.14432,-0.16057,-0.1878,-0.21805,-0.24328,-0.23966,-0.22957,-0.19298,-0.15835,-0.12635,-0.11195,-0.06571,-0.06642,-0.0506,-0.06093,-0.02027,0.0,0.0,0.0,0.01556,-0.02834,0.03753,0.00395,-0.02295,-0.05078,-0.07508,-0.08217,-0.1086,-0.12832,-0.15792,-0.20438,-0.22169,-0.2457,-0.25368,-0.2245,-0.17998,-0.15526,-0.10642,-0.07454,-0.02028,-0.00626,-0.01093,-0.03164,-0.04387,-0.02485,0.0,0.00682,0.0104,0.00561,0.02841,-0.00183,-0.02741,-0.05279,-0.06193,-0.05603,-0.05815,-0.067,-0.11604,-0.16585,-0.17484,-0.18945,-0.20116,-0.18144,-0.1466,-0.11851,-0.08472,-0.05178,0.00221,0.00468,0.00395,-0.01772,-0.01797,0.01421,0.0,0.02048,0.01167,0.01612,0.01766,0.01974,-0.00297,-0.01241,-0.01712,-0.01096,0.00088,-0.02548,-0.09508,-0.12079,-0.12152,-0.12561,-0.14272,-0.1248,-0.08555,-0.06289,-0.04532,-0.03097,-0.02153,-0.00948,0.01484,0.01175,-0.0136,0.01834,-0.0262,0.01725,0.00372,0.00675,0.02676,0.01384,0.00965,0.02168,0.02256,0.03324,0.02094,-0.02811,-0.08571,-0.08909,-0.0816,-0.08036,-0.09185,-0.0639,-0.02485,-0.0176,-0.01083,-0.03147,-0.04565,-0.03305,0.00864,0.00698,-0.00619,-0.01569,0.01122,0.01627,0.00417,0.00093,-0.00578,-0.00716,-0.00844,0.01423,0.02536,0.04103,0.02959,-0.02455,-0.05343,-0.07474,-0.05026,-0.04667,-0.04902,0.00022,0.04416,0.03985,-0.00203,-0.05042,-0.0699,-0.05561,-0.02707,-0.0076,-0.00056,-0.00636,0.01177,0.00035,0.00738,0.00292,-0.01553,-0.0023,0.00702,0.03428,0.02398,0.05184,0.03539,-0.00624,-0.03686,-0.04012,-0.02905,-0.03411,-0.02138,0.05123,0.08302,0.04496,-0.03128,-0.08543,-0.08318,-0.0977,-0.04771,0.00487,-0.00277,0.00883,0.01094,-0.02854,-0.00198,-0.00836,-0.0281,0.00144,0.02026,0.04002,0.05022,0.06138,0.04564,0.02187,-0.03553,-0.04581,-0.04826,-0.02906,0.02944,0.08546,0.10198,0.01594,-0.06113,-0.10797,-0.10505,-0.09197,-0.05798,0.00334,0.00793,0.0152,0.00682,-0.00838,0.00346,-0.00626,0.00735,-0.00989,0.03524,0.07326,0.08493,0.0773,0.0628,0.02345,-0.04407,-0.07137,-0.06266,-0.02458,0.05925,0.11229,0.0979,0.00531,-0.06357,-0.10682,-0.11416,-0.08019,-0.07079,-0.00112,0.02463,0.00984,0.00682,0.01316,0.02514,0.00206,0.02619,0.01516,0.06222,0.1193,0.10572,0.09403,0.06867,0.01109,-0.04671,-0.04977,-0.02766,0.01959,0.10625,0.13645,0.0975,0.01945,-0.05379,-0.1028,-0.11624,-0.10019,-0.07092,-0.02148,-0.02753,-0.02261,0.0,0.00756,0.02656,0.05174,0.04921,0.03631,0.0634,0.11503,0.10691,0.0899,0.07412,0.05088,0.00655,0.01313,0.02393,0.082,0.1397,0.14646,0.08774,0.0143,-0.05399,-0.09353,-0.11019,-0.11094,-0.05303,-0.00191,-0.02493,0.00537,0.0,0.0,0.01663,0.05881,0.04682,0.02436,0.03365,0.08367,0.07075,0.08118,0.09254,0.07408,0.03639,0.04735,0.08796,0.16045,0.18682,0.16955,0.09808,-0.01067,-0.09592,-0.1237,-0.1195,-0.10306,-0.05386,0.00405,0.00837,0.00482,0.0,0.00947,-0.00879,0.03604,0.03241,-0.03892,-0.03177,0.00512,0.00391,0.02981,0.05299,0.05324,0.04245,0.07588,0.15673,0.22886,0.22142,0.13849,0.05739,-0.06255,-0.14408,-0.17328,-0.12562,-0.0935,-0.07595,-0.03747,0.00715,-0.00037,0.0,0.01087,-0.01592,-0.01797,-0.0409,-0.10505,-0.11889,-0.11951,-0.09934,-0.09128,-0.0476,-0.04794,-0.01856,0.05082,0.14831,0.214,0.16667,0.05787,-0.04062,-0.14738,-0.20495,-0.21646,-0.1264,-0.10683,-0.08732,-0.03739,-0.00139,-0.00319,0.00682,-0.01853,0.0164,-0.04558,-0.10319,-0.17097,-0.21274,-0.21772,-0.20759,-0.20588,-0.19293,-0.14693,-0.08925,0.00835,0.10223,0.11513,0.05136,-0.03116,-0.10731,-0.19405,-0.23222,-0.20042,-0.13649,-0.11077,-0.09262,-0.02239,0.00824,0.00285,0.0,-0.01926,0.01789,-0.02216,-0.13429,-0.19575,-0.24501,-0.25591,-0.279,-0.29013,-0.27208,-0.20353,-0.11504,-0.02796,0.0244,0.00059,-0.02289,-0.07626,-0.14608,-0.20292,-0.21674,-0.17908,-0.14354,-0.10013,-0.06399,-0.02479,0.00364,0.00957,0.0,0.00652,0.00219,-0.03717,-0.11054,-0.17952,-0.23089,-0.27872,-0.31131,-0.32758,-0.30702,-0.22611,-0.14324,-0.08516,-0.05997,-0.06145,-0.0615,-0.09952,-0.1414,-0.16112,-0.18156,-0.1569,-0.13308,-0.08743,-0.05744,-0.01916,-0.02284,0.00682,-0.02443,0.01126,-0.02686,-0.0466,-0.06493,-0.14519,-0.20014,-0.26368,-0.29127,-0.30127,-0.30337,-0.23563,-0.16514,-0.1025,-0.07778,-0.05304,-0.03313,-0.06584,-0.10648,-0.11184,-0.11282,-0.10393,-0.08893,-0.08766,-0.09483,-0.03522,-0.04667,0.00682,-0.02443,-0.02015,-0.01356,-0.03139,-0.06177,-0.10964,-0.15936,-0.21233,-0.23774,-0.23755,-0.2096,-0.15677,-0.10826,-0.05121,-0.02096,0.01272,0.0375,0.01849,0.00464,0.00309,-0.01052,-0.01198,-0.01488,-0.06609,-0.09151,-0.04993,0.01364,0.00682,0.0,0.0,-1e-05,-0.00562,-0.01941,-0.04589,-0.06993,-0.10629,-0.1461,-0.13349,-0.09743,-0.05438,-0.01904,0.02054,0.05733,0.08037,0.09894,0.10216,0.0935,0.08322,0.0817,0.05504,0.02868,0.00289,-0.02112,-0.01227,0.0162,0.0,0.0,0.0,0.01348,-0.02185,-0.01259,-0.01244,0.00098,0.00299,-0.01552,-0.00165,0.00835,0.0333,0.03795,0.06166,0.07835,0.09212,0.09536,0.1008,0.11105,0.09163,0.09158,0.08232,0.04015,0.0217,0.0108,0.01596,0.00794,0.0,0.0,0.0,-0.04456,-0.00534,-0.01768,-0.00512,0.00465,0.02114,0.02339,0.04655,0.05598,0.03922,-0.01161,-0.03075,-0.01713,-0.01627,-0.00787,0.01554,0.03004,0.01708,0.02005,0.02281,-0.00332,0.01127,0.01827,0.00948,0.00682,0.0,0.0,0.0,0.0,0.0,0.02006,0.00041,-4e-05,-0.00773,0.01896,0.01279,-0.01869,-0.04716,-0.06271,-0.09089,-0.08613,-0.03165,-0.02331,-0.03393,-0.04197,-0.07616,-0.04092,-0.00548,-0.02394,-0.01527,0.00858,0.00682,0.0,0.0,0.0,0.0,0.0,0.0,0.0,-0.00515,-0.01602,-0.00801,0.01867,0.03154,0.00194,-0.01641,-0.03697,-0.02665,-0.03006,-0.00251,0.02924,0.02741,-0.01027,-0.03227,0.01786,0.01573,0.01271
0.01927,0.0,0.0,0.0,0.0,-1.2907,0.0,0.0,0.0,0.0,0.0,0.0,0.0,0.0,0.0,0.0,0.0,0.0,0.00698,0.0091,0.00645,0.00645,0.0,0.0,0.0,0.0,0.0,0.0,0.0,0.0,0.0,0.0,0.0,0.0,0.0,0.0,0.0,0.0,0.0,0.00645,0.01233,0.01561,0.02157,-0.01648,-0.02098,-0.01066,-0.00327,-0.00964,-0.00924,-0.00174,-0.02099,-0.00911,-0.01093,0.01891,-0.00222,-0.02988,-0.00322,0.00692,0.0,0.0,0.0,0.0,0.0,0.0,0.00645,0.00645,0.00946,-0.01412,0.02518,-0.00181,-0.03204,-0.04888,-0.03999,-0.04356,-0.0686,-0.07818,-0.07302,-0.09075,-0.1085,-0.07648,-0.02852,-0.02301,-0.03918,-0.03304,0.00111,0.01938,0.01816,0.01066,0.0,0.0,0.0,0.0,0.00694,0.0105,0.01756,-0.02467,-0.0107,-0.05155,-0.06948,-0.0726,-0.07311,-0.07546,-0.10258,-0.09204,-0.09963,-0.09885,-0.09234,-0.05229,-0.04935,-0.04229,-0.04531,-0.01817,-0.01454,-0.02505,-0.00228,0.0134,0.00645,0.0,0.0,0.00645,0.01066,-0.00026,-0.02724,-0.02571,-0.00726,-0.0419,-0.04351,-0.04444,-0.04309,-0.05779,-0.06527,-0.07519,-0.07463,-0.0484,0.00083,0.03793,0.05831,0.06639,0.06714,0.08588,0.06751,0.03632,0.01374,0.03008,0.03688,0.0,0.0,0.0,0.01473,-0.00955,-0.00862,-0.01645,-0.03415,-0.04998,-0.05651,-0.05363,-0.0508,-0.05558,-0.05376,-0.04605,-0.01485,0.00707,0.04834,0.08605,0.12268,0.12597,0.1257,0.13343,0.13418,0.11737,0.10883,0.06691,0.08468,0.03771,0.0,0.00645,0.01025,0.00327,-0.01435,-0.03056,-0.05555,-0.07138,-0.07358,-0.07309,-0.05147,-0.03547,-0.02426,0.00243,0.05237,0.08309,0.11093,0.13023,0.13858,0.14345,0.13698,0.11542,0.13186,0.13795,0.17845,0.12014,0.0616,0.02207,0.0,0.01939,0.00894,0.00687,-0.04793,-0.02997,-0.06091,-0.07533,-0.08791,-0.10403,-0.04579,-0.03563,-0.02684,0.00893,0.06589,0.08145,0.0981,0.09832,0.10764,0.10594,0.09677,0.06941,0.08044,0.14173,0.1797,0.13305,0.07524,0.01736,-0.026,0.01534,-0.00889,-0.0194,-0.05952,-0.07323,-0.0919,-0.10304,-0.10994,-0.1113,-0.09809,-0.07929,-0.04785,-0.00836,0.02672,0.03205,0.01722,0.00722,0.02228,0.02201,0.01795,-0.00886,0.00787,0.09916,0.17447,0.13545,0.0822,0.03221,0.01062,0.01766,-0.0193,-0.03859,-0.09916,-0.13525,-0.14736,-0.153,-0.13508,-0.12519,-0.10807,-0.06395,-0.00868,0.00997,0.04332,0.02113,-0.03334,-0.06037,-0.05255,-0.06832,-0.0693,-0.08483,-0.04612,0.02201,0.10668,0.1096,0.02198,0.02963,0.01114,-0.00516,-0.01813,-0.03747,-0.10077,-0.13506,-0.15291,-0.15307,-0.15964,-0.11346,-0.07124,0.0073,0.05863,0.08747,0.07736,0.03067,-0.03614,-0.07682,-0.09982,-0.14109,-0.14597,-0.14038,-0.095,-0.05993,0.02096,0.08618,0.05602,0.0233,0.01035,-0.04561,-0.03099,-0.04897,-0.10288,-0.13005,-0.14783,-0.16057,-0.16337,-0.09755,0.00887,0.1079,0.1505,0.14278,0.10465,0.06079,0.00549,-0.0774,-0.14349,-0.19191,-0.18726,-0.17539,-0.14265,-0.11411,-0.05724,0.05289,0.05316,0.01439,0.00645,-0.01838,-0.01596,-0.02897,-0.07273,-0.13309,-0.14767,-0.15721,-0.1377,-0.044,0.0754,0.17286,0.19839,0.15929,0.12865,0.08752,0.01743,-0.07916,-0.13874,-0.18767,-0.17188,-0.16896,-0.15353,-0.12964,-0.10971,-0.01061,0.02207,0.00895,0.00645,0.01246,0.02108,-0.01669,-0.05698,-0.12925,-0.16981,-0.14762,-0.1119,-0.02578,0.0802,0.16149,0.17335,0.15792,0.14523,0.09416,0.01146,-0.08192,-0.12201,-0.14358,-0.14867,-0.16008,-0.15624,-0.13539,-0.1076,-0.02087,-0.02974,-0.02398,0.0,0.00716,0.01889,-0.01875,-0.05056,-0.12706,-0.193,-0.19726,-0.14473,-0.0658,0.02297,0.09022,0.10207,0.10565,0.08797,0.03985,-0.04538,-0.10963,-0.12323,-0.12605,-0.12622,-0.14333,-0.15117,-0.14577,-0.08327,-0.006,-0.02126,0.00493,0.0,0.0,0.00234,-0.03663,-0.05733,-0.14444,-0.21116,-0.21839,-0.18959,-0.12658,-0.04809,-0.01264,0.0018,-0.00575,-0.00471,-0.02287,-0.0904,-0.12328,-0.10658,-0.10975,-0.12629,-0.1444,-0.15322,-0.14118,-0.08408,0.00255,-0.00362,-0.00845,0.0,0.00897,-0.00623,-0.00257,-0.04908,-0.14119,-0.20264,-0.20244,-0.21056,-0.16793,-0.12271,-0.09412,-0.08041,-0.08523,-0.04614,-0.05399,-0.08507,-0.11386,-0.07099,-0.07801,-0.11453,-0.15214,-0.15251,-0.11892,-0.08775,-0.03762,-0.03291,-0.02176,0.0,0.01029,-0.01328,0.00371,-0.02637,-0.09423,-0.14438,-0.15529,-0.16137,-0.17323,-0.14612,-0.12116,-0.08776,-0.06415,-0.04063,-0.03689,-0.07645,-0.10018,-0.05202,-0.0549,-0.1173,-0.16074,-0.13002,-0.11283,-0.09432,-0.06434,-0.03831,-0.01114,0.00645,-0.01876,0.01602,0.00192,0.01091,-0.03815,-0.0736,-0.0765,-0.09839,-0.12715,-0.13136,-0.09395,-0.05867,-0.04128,-0.01974,-0.0371,-0.06912,-0.08559,-0.04165,-0.05584,-0.11221,-0.1297,-0.11692,-0.1084,-0.09037,-0.04003,-0.00689,-0.0006,0.0,-0.01946,0.01763,0.04004,0.03462,0.01373,0.0081,0.00538,-0.0233,-0.07343,-0.0935,-0.06582,-0.04255,-0.035,-0.03916,-0.05771,-0.04844,-0.06043,-0.0385,-0.06409,-0.10122,-0.1072,-0.1123,-0.0967,-0.0533,-0.03511,-0.01081,0.00906,0.0,0.00596,0.00609,0.04362,0.04683,0.0425,0.05688,0.05288,0.03817,0.01576,-0.00504,0.00218,0.0042,-0.00923,-0.04438,-0.0404,-0.0257,-0.04699,-0.03196,-0.04699,-0.08534,-0.09788,-0.09407,-0.08117,-0.04682,-0.02018,-0.02485,0.00645,-0.0248,0.01055,-0.01264,0.01804,0.05301,0.04598,0.0725,0.08188,0.10029,0.10401,0.09447,0.09295,0.0889,0.05715,0.02363,0.01391,0.01965,-0.00905,-0.03,-0.0406,-0.05917,-0.06125,-0.06185,-0.07461,-0.07771,-0.024,-0.039,0.00645,-0.0248,-0.02063,0.00069,0.006,0.02727,0.04253,0.05644,0.07633,0.11702,0.15249,0.17352,0.16829,0.15859,0.12335,0.08837,0.07424,0.05777,0.00177,-0.02219,-0.02716,-0.02845,-0.02975,-0.02911,-0.05769,-0.08874,-0.02509,0.01304,0.00645,0.0,0.0,-0.0014,0.00891,0.02897,0.0564,0.06892,0.06284,0.08736,0.12393,0.14593,0.14687,0.1189,0.07658,0.06012,0.0416,0.00661,-0.0483,-0.07175,-0.06173,-0.03736,-0.02013,-0.01193,-0.00857,-0.05552,-0.00453,0.01533,0.0,0.0,0.0,0.01276,-0.01656,0.01195,0.04029,0.0569,0.05957,0.04379,0.0587,0.05149,0.05426,0.03785,0.00504,-0.01164,-0.02029,-0.05576,-0.08551,-0.10657,-0.08354,-0.04262,0.00453,0.01238,0.02534,0.00812,0.01511,0.00751,0.0,0.0,0.0,-0.02366,-0.0081,0.01076,0.00141,0.00245,0.01999,0.01967,0.04138,0.04615,0.0271,-0.02745,-0.05874,-0.06681,-0.07279,-0.06439,-0.06744,-0.08915,-0.07697,-0.04757,-0.0099,-0.01085,0.01235,0.01729,0.00897,0.00645,0.0,0.0,0.0,0.0,0.0,0.01899,0.00609,0.00148,-0.00887,0.0068,0.00071,-0.02144,-0.05238,-0.07513,-0.1011,-0.0969,-0.061,-0.05886,-0.06729,-0.07897,-0.09875,-0.05963,-0.02581,-0.05214,-0.01697,0.00812,0.00645,0.0,0.0,0.0,0.0,0.0,0.0,0.0,-0.01268,-0.0212,-0.0027,0.01624,0.02704,-0.00427,-0.03358,-0.06003,-0.049,-0.05177,-0.02093,0.01648,0.01891,-0.01865,-0.03713,0.0162,0.01489
0.02407,0.00912,0.0,0.0,0.0,0.0,-1.33268,0.0,0.0,0.0,0.0,0.0,0.0,0.0,0.0,0.0,0.0,0.0,0.0,0.00721,0.00939,0.00666,0.00666,0.0,0.0,0.0,0.0,0.0,0.0,0.0,0.0,0.0,0.0,0.0,0.0,0.0,0.0,0.0,0.0,0.0,0.00666,0.01273,0.01611,0.02227,0.02449,0.0332,0.02963,0.02878,0.02859,0.05018,0.04889,0.02031,0.02019,0.04654,0.0253,0.0345,0.04799,0.02543,0.00715,0.0,0.0,0.0,0.0,0.0,0.0,0.00666,0.00666,0.00977,0.02558,0.02599,0.06362,0.10297,0.11187,0.1105,0.1263,0.13651,0.16474,0.20898,0.23803,0.26539,0.23431,0.20754,0.18322,0.15464,0.12095,0.07752,0.03853,0.01875,0.011,0.0,0.0,0.0,0.0,0.00716,0.01084,0.01813,-0.01367,0.02199,0.04313,0.0575,0.07276,0.09037,0.09669,0.0973,0.13889,0.18837,0.21586,0.24176,0.26729,0.26083,0.21427,0.1769,0.15242,0.13729,0.09114,0.05107,0.01527,0.00666,0.0,0.0,0.00666,0.011,-0.00599,-0.01529,-0.0119,0.04364,0.05669,0.07155,0.08303,0.09508,0.06804,0.07428,0.09006,0.0977,0.10816,0.13507,0.15525,0.14092,0.11955,0.07982,0.05925,0.07065,0.0336,0.02668,0.02129,0.002,0.0,0.0,0.0,0.01521,-0.00155,0.02573,0.02615,0.05031,0.06984,0.07477,0.10516,0.11648,0.10222,0.11655,0.10397,0.11021,0.09894,0.11604,0.12445,0.11892,0.10309,0.07066,0.03611,0.0292,0.0154,0.0329,0.00836,-0.01659,-0.02474,0.0,0.00666,0.00881,0.01642,0.034,0.04836,0.06294,0.06665,0.0773,0.11411,0.12511,0.1233,0.11422,0.09969,0.09007,0.07515,0.0714,0.0626,0.08008,0.08185,0.07278,0.03916,0.03304,0.02859,0.03103,-0.00694,-0.01506,0.01383,0.0,0.02002,0.00888,0.02061,0.01213,0.04369,0.05226,0.06336,0.07872,0.0917,0.11161,0.09272,0.06475,0.03319,0.01898,-0.02157,-0.04449,-0.03849,0.00842,0.04851,0.05568,0.03912,0.02049,0.03657,0.03178,-0.00269,-0.01721,0.01793,-0.02526,0.01649,-0.00362,-0.00255,-0.00622,0.0026,0.03278,0.05767,0.06846,0.06626,0.03667,-0.00304,-0.02161,-0.03183,-0.05851,-0.11687,-0.14774,-0.12261,-0.05587,-0.00646,0.02099,0.01823,0.01827,0.03789,0.02522,-0.00624,-0.01713,-0.02298,0.01097,0.01395,-0.01507,-0.02355,-0.05291,-0.04641,0.00229,0.0328,0.0541,0.03532,-0.00595,-0.03796,-0.01899,-0.0492,-0.08206,-0.16004,-0.18991,-0.1557,-0.07653,-0.03686,0.00354,0.00459,0.03578,0.04841,0.01312,-0.02808,-0.01997,-0.00836,0.0115,-0.00341,-0.01233,-0.02207,-0.05867,-0.03773,0.02192,0.05944,0.04241,0.02778,-0.00337,-0.004,0.02666,0.01635,-0.04718,-0.13618,-0.17269,-0.13605,-0.06663,-0.04389,0.00236,0.02915,0.06706,0.06218,0.04174,-0.00473,-0.01228,0.00778,0.01069,-0.04086,-0.02005,-0.02605,-0.05376,-0.00066,0.05805,0.07833,0.05925,0.04501,0.04082,0.07729,0.09733,0.05705,-0.03333,-0.11209,-0.1098,-0.08164,-0.03399,-0.01364,0.03046,0.07808,0.10288,0.08944,0.08972,0.01351,0.00289,0.01485,0.00666,-0.01574,-0.00663,-0.01047,-0.00558,0.02853,0.09423,0.10726,0.08903,0.08201,0.1038,0.15302,0.14723,0.03657,-0.03773,-0.0613,-0.03033,0.00578,0.03283,0.04367,0.10365,0.13075,0.14496,0.12748,0.09916,0.00492,0.02217,0.00944,0.00666,0.01287,0.02414,0.00175,0.02953,0.06242,0.10733,0.13501,0.12532,0.11996,0.1259,0.16182,0.11976,0.02465,-0.00387,0.00624,0.04488,0.06427,0.08591,0.12668,0.16206,0.16549,0.17641,0.16157,0.09946,0.02094,-0.04772,-0.02337,0.0,0.00739,0.02232,0.02416,0.0394,0.07386,0.10336,0.12279,0.13038,0.11999,0.10858,0.10394,0.03603,-0.02168,-0.01028,0.01301,0.04446,0.04867,0.086,0.14154,0.19403,0.20929,0.21198,0.17165,0.10351,0.04305,-0.03784,0.00517,0.0,0.0,0.01484,0.01955,0.04172,0.07441,0.09235,0.11998,0.12549,0.12049,0.09175,0.0339,-0.04021,-0.08776,-0.06647,-0.03795,-0.02112,-0.01634,0.06863,0.14589,0.21706,0.24299,0.2252,0.15929,0.07037,0.05362,-0.00719,-0.01044,0.0,0.00926,0.01383,0.03119,0.03638,0.06182,0.08733,0.13664,0.15744,0.16151,0.1219,0.04125,-0.04174,-0.11705,-0.10232,-0.10217,-0.09374,-0.05308,0.07615,0.18647,0.25499,0.25755,0.2121,0.1347,0.05765,0.01529,-0.02862,-0.02478,0.0,0.01062,0.01103,0.01504,0.0308,0.0499,0.089,0.14337,0.19862,0.22796,0.21419,0.11968,0.00866,-0.07316,-0.11221,-0.13033,-0.10547,-0.00017,0.1525,0.25065,0.28,0.23699,0.17786,0.09311,0.0209,-0.00741,-0.02317,-0.01187,0.00666,-0.01842,0.02676,0.01009,0.04534,0.05208,0.07856,0.13624,0.21101,0.27797,0.28175,0.20185,0.05395,-0.04256,-0.08381,-0.11145,-0.02284,0.10361,0.24307,0.28593,0.25719,0.19106,0.12115,0.03707,-0.00776,0.0045,-0.00795,-0.00068,0.0,-0.01914,0.03164,0.0349,0.04431,0.06619,0.08565,0.13949,0.19614,0.24465,0.27248,0.24011,0.12786,0.03856,-0.01023,0.00844,0.11128,0.2005,0.28152,0.26975,0.20347,0.14076,0.0665,0.00488,-0.01398,0.00043,-0.00769,0.00935,0.0,0.00632,0.03267,0.03945,0.05514,0.07101,0.08978,0.12092,0.15239,0.19486,0.21161,0.22674,0.19069,0.13959,0.09404,0.12287,0.19714,0.21525,0.23556,0.20294,0.14245,0.09045,0.02043,-0.01282,-0.01138,0.00437,-0.0238,0.00666,-0.02459,0.01096,0.01319,0.04296,0.06743,0.07654,0.1059,0.11247,0.12964,0.14116,0.13206,0.15337,0.16341,0.12825,0.10627,0.12811,0.16579,0.15133,0.13138,0.12224,0.09802,0.0576,0.01907,-0.01907,-0.0357,-0.01112,-0.04243,0.00666,-0.02459,-0.02035,0.0017,0.03747,0.05096,0.07163,0.09784,0.11,0.11679,0.09611,0.06185,0.02749,0.00268,-0.03047,-0.02682,0.00604,0.04114,0.03051,0.05486,0.08,0.07845,0.0535,0.03592,-0.01726,-0.04162,-0.00706,0.01328,0.00666,0.0,0.0,0.00682,0.03087,0.0367,0.06145,0.09743,0.10166,0.07581,0.05452,0.02836,-0.01573,-0.07641,-0.10562,-0.09202,-0.06103,-0.03587,-0.02429,0.01506,0.04149,0.05287,0.04449,0.04294,0.01916,-0.02016,0.00094,0.01583,0.0,0.0,0.0,0.01318,-0.0004,0.00857,0.01577,0.03906,0.03468,-0.00332,-0.01182,-0.03319,-0.0518,-0.08712,-0.0986,-0.08394,-0.0518,-0.0477,-0.0427,-0.03878,-0.00581,0.0214,0.04469,0.03483,0.03253,0.0167,0.0156,0.00776,0.0,0.0,0.0,-0.01223,-0.00932,-0.00129,-0.01363,-0.03608,-0.03777,-0.06469,-0.05958,-0.07386,-0.106,-0.16024,-0.16123,-0.12795,-0.09708,-0.06261,-0.04353,-0.04835,-0.02455,0.00167,0.01906,0.00602,0.02378,0.01785,0.00926,0.00666,0.0,0.0,0.0,0.0,0.0,0.01961,-0.00645,-0.02547,-0.04961,-0.02285,-0.02715,-0.06441,-0.09909,-0.11766,-0.13076,-0.11403,-0.0512,-0.02887,-0.03134,-0.03561,-0.04685,-0.0175,0.00232,-0.02402,-0.00376,0.00839,0.00666,0.0,0.0,0.0,0.0,0.0,0.0,0.0,-0.01481,-0.0338,-0.01976,0.01429,0.02713,-0.01438,-0.03766,-0.06401,-0.05125,-0.04858,-0.01137,0.0238,0.02457,-0.01195,-0.03288,0.01759
0.03074,0.01243,0.00942,0.0,0.0,0.0,0.0,-1.21677,0.0,0.0,0.0,0.0,0.0,0.0,0.0,0.0,0.0,0.0,0.0,0.0,0.00658,0.00858,0.00608,0.00608,0.0,0.0,0.0,0.0,0.0,0.0,0.0,0.0,0.0,0.0,0.0,0.0,0.0,0.0,0.0,0.0,0.0,0.00608,0.01162,0.01471,0.02033,-0.00561,-0.012,-0.01009,-0.0019,0.0066,0.0133,0.00297,-0.01373,0.00752,0.01035,0.01944,0.00499,-0.02931,-0.0073,0.00653,0.0,0.0,0.0,0.0,0.0,0.0,0.00608,0.00608,0.00892,-0.01306,0.02373,-0.00372,-0.03743,-0.04856,-0.03194,-0.02281,-0.01983,-0.01096,0.00209,-0.00074,-0.02039,-0.01435,0.00271,-0.00575,-0.02737,-0.03208,-0.00466,0.01584,0.01712,0.01005,0.0,0.0,0.0,0.0,0.00654,0.0099,0.01655,-0.01657,-0.00858,-0.05804,-0.07559,-0.07546,-0.07382,-0.06717,-0.08077,-0.06149,-0.05282,-0.05555,-0.06014,-0.03915,-0.04017,-0.04712,-0.05936,-0.02858,-0.01282,-0.01068,-0.00892,-0.03589,0.00608,0.0,0.0,0.00608,0.01005,0.03134,-0.02085,-0.01008,-0.00825,-0.05065,-0.05806,-0.06841,-0.07978,-0.10288,-0.11202,-0.13269,-0.14811,-0.14892,-0.11723,-0.09092,-0.08145,-0.0703,-0.07749,-0.05913,-0.01821,-0.02451,-0.01826,-0.01165,0.00483,0.0,0.0,0.0,0.01389,0.01965,-0.0154,-0.02183,-0.0571,-0.07365,-0.08978,-0.0965,-0.11447,-0.13563,-0.14598,-0.16517,-0.17759,-0.18268,-0.15432,-0.1235,-0.09245,-0.08476,-0.08006,-0.06213,-0.02917,-0.00638,0.02191,0.01158,-0.00851,-0.02517,0.0,0.00608,0.0214,0.02614,-0.02305,-0.04954,-0.06878,-0.07563,-0.08658,-0.09807,-0.10828,-0.13136,-0.14273,-0.16376,-0.16989,-0.17962,-0.17101,-0.1549,-0.13628,-0.11763,-0.09581,-0.09362,-0.04412,-0.00698,0.02465,-0.001,-0.00578,0.01227,0.0,0.01828,0.04217,0.06171,-0.00465,0.0043,-0.01163,-0.00871,-0.00394,-0.03058,-0.03194,-0.04977,-0.08025,-0.08919,-0.09304,-0.1005,-0.09438,-0.09073,-0.077,-0.06736,-0.07259,-0.10326,-0.08018,-0.02056,0.01736,0.00605,0.0044,0.01637,-0.03491,0.02742,0.07774,0.11016,0.04901,0.06434,0.06077,0.06309,0.05818,0.05774,0.03851,0.01358,0.02456,0.04113,0.05248,0.06639,0.05418,0.04239,0.02208,-0.00859,-0.04414,-0.09085,-0.08406,-0.05506,-0.01823,-0.01066,-0.00613,-0.02412,0.01001,0.03849,0.09695,0.14287,0.12706,0.11207,0.08503,0.07981,0.07459,0.06267,0.04289,0.04398,0.07558,0.09317,0.14371,0.16123,0.15076,0.12768,0.09758,0.04275,-0.03169,-0.09793,-0.09563,-0.08709,-0.04788,-0.02375,-0.01159,0.00228,0.0105,0.03934,0.09579,0.15219,0.15883,0.11594,0.07861,0.05877,0.01284,0.00745,-0.01493,0.00334,0.03465,0.08038,0.11859,0.12314,0.11569,0.12262,0.11167,0.02727,-0.06333,-0.11754,-0.11252,-0.11142,-0.06415,-0.0065,0.00115,0.01143,0.00976,0.04765,0.09057,0.12088,0.10782,0.04792,0.02216,-0.02748,-0.07417,-0.07714,-0.06811,-0.03784,-0.01871,0.00588,0.02683,0.04513,0.07152,0.09098,0.0753,-0.01911,-0.09105,-0.13854,-0.14021,-0.13412,-0.08491,-0.00054,-7e-05,0.01356,0.00608,0.02913,0.06737,0.07835,0.04187,-0.02791,-0.06644,-0.10344,-0.12971,-0.11709,-0.09808,-0.05722,-0.04337,-0.05137,-0.02567,0.00931,0.06,0.07938,0.04771,-0.04168,-0.10278,-0.14903,-0.16662,-0.15119,-0.10987,-0.00765,0.02029,0.0083,0.00608,0.01175,0.03717,0.03642,-0.00544,-0.08015,-0.13183,-0.13659,-0.15147,-0.14567,-0.11753,-0.06402,-0.06161,-0.04657,-0.01613,0.04218,0.09312,0.07609,0.01405,-0.06067,-0.11357,-0.16949,-0.18668,-0.16016,-0.10004,-0.01177,-0.02898,-0.02351,0.0,0.00675,0.01754,0.00354,-0.01086,-0.10014,-0.16125,-0.1816,-0.18104,-0.15393,-0.11283,-0.07562,-0.06094,-0.0392,-0.00594,0.06811,0.11003,0.06819,-0.01383,-0.08279,-0.12164,-0.16994,-0.18376,-0.16115,-0.08173,0.00325,-0.01856,0.00459,0.0,0.0,-6e-05,-0.02902,-0.04038,-0.12871,-0.19338,-0.21577,-0.21029,-0.16229,-0.10649,-0.09013,-0.0738,-0.06596,-0.00175,0.08794,0.11305,0.06708,-0.00958,-0.09204,-0.14897,-0.18184,-0.1754,-0.14689,-0.07424,0.00571,0.00465,0.00226,0.0,0.00845,-0.01879,-0.00347,-0.05926,-0.16317,-0.21746,-0.21933,-0.20891,-0.15356,-0.09817,-0.06831,-0.0592,-0.05622,0.02825,0.10784,0.1047,0.03235,-0.02293,-0.11145,-0.17602,-0.20454,-0.17563,-0.12856,-0.08197,-0.00431,-0.00392,-0.00204,0.0,0.0097,-0.02627,-0.01264,-0.07529,-0.1844,-0.22835,-0.22513,-0.18935,-0.13787,-0.0681,-0.03435,-0.01132,0.01077,0.07684,0.11002,0.06185,-0.02106,-0.07599,-0.14227,-0.19793,-0.22314,-0.16516,-0.14292,-0.09275,-0.01672,-0.02041,0.0016,0.00608,-0.01933,0.01444,-0.0439,-0.10436,-0.18955,-0.2439,-0.23626,-0.20174,-0.1386,-0.06599,-0.00735,0.01742,0.05101,0.08846,0.05697,-0.01902,-0.08337,-0.10988,-0.16691,-0.21629,-0.20886,-0.1733,-0.15379,-0.10217,-0.0201,0.0034,0.00478,0.0,-0.01999,0.01741,-0.02034,-0.11717,-0.19004,-0.23319,-0.22885,-0.21201,-0.16898,-0.09407,-0.02187,0.01642,0.04205,0.02931,-0.02599,-0.07715,-0.13208,-0.15287,-0.19179,-0.21595,-0.20646,-0.18406,-0.14542,-0.06549,-0.02114,-0.00134,0.00854,0.0,0.00534,-0.0039,-0.02904,-0.09738,-0.17087,-0.21132,-0.23965,-0.2402,-0.20501,-0.14284,-0.07007,-0.0133,0.00205,-0.04005,-0.08019,-0.10871,-0.15194,-0.16071,-0.16992,-0.19327,-0.18882,-0.15944,-0.10664,-0.04911,-0.00652,-0.00704,0.00608,-0.02517,0.00982,-0.02991,-0.03724,-0.06337,-0.13411,-0.17254,-0.21472,-0.22027,-0.20288,-0.18394,-0.12441,-0.05793,-0.03639,-0.0628,-0.07667,-0.0842,-0.12022,-0.14117,-0.13632,-0.13967,-0.1348,-0.10702,-0.09824,-0.07351,-0.0199,-0.02251,0.00608,-0.02517,-0.02111,-0.02352,-0.0304,-0.06566,-0.09863,-0.12824,-0.15993,-0.15683,-0.14138,-0.12309,-0.08168,-0.04422,-0.02555,-0.0307,-0.01675,-0.03028,-0.06901,-0.07877,-0.07,-0.0627,-0.05957,-0.0463,-0.07708,-0.08944,-0.03007,0.01179,0.00608,0.0,0.0,-0.01802,-0.00614,-0.01964,-0.04123,-0.03029,-0.05013,-0.06957,-0.05138,-0.01491,0.00791,0.01661,0.01331,0.01636,0.02981,0.01204,-0.01654,-0.04631,-0.03953,-0.0215,-0.01521,-0.01147,-0.00933,-0.04744,-0.00177,0.01445,0.0,0.0,0.0,0.01203,-0.01475,0.00291,0.00994,0.02966,0.04798,0.0448,0.06229,0.0785,0.08816,0.09384,0.09296,0.07481,0.09652,0.06037,0.01781,-0.02784,-0.02279,0.00156,0.02078,0.01024,0.01028,0.00618,0.01424,0.00708,0.0,0.0,0.0,-0.04835,0.01722,0.02394,0.01538,0.02382,0.08226,0.12048,0.14473,0.1624,0.17637,0.17997,0.19248,0.1547,0.14303,0.1071,0.0475,-0.00342,0.00284,0.02172,0.01372,0.00441,0.0087,0.0163,0.00846,0.00608,0.0,0.0,0.0,0.0,0.0,0.0179,0.00442,0.05702,0.11011,0.1386,0.17096,0.18006,0.20118,0.23877,0.24939,0.21277,0.19055,0.1256,0.05669,0.03909,0.01133,0.00544,-0.0135,-0.02417,-0.01758,0.00766,0.00608,0.0,0.0,0.0,0.0,0.0,0.0,0.0,0.02107,0.04535,0.04576,0.03842,0.04235,0.08076,0.09378,0.11133,0.11007,0.10788,0.0977,0.07842,0.05114,0.02846,0.01
0.04574,0.01403,0.01135,0.0086,0.0,0.0,0.0,0.0,-1.252,0.0,0.0,0.0,0.0,0.0,0.0,0.0,0.0,0.0,0.0,0.0,0.0,0.00677,0.00882,0.00626,0.00626,0.0,0.0,0.0,0.0,0.0,0.0,0.0,0.0,0.0,0.0,0.0,0.0,0.0,0.0,0.0,0.0,0.0,0.00626,0.01196,0.01514,0.02092,-0.01334,-0.01873,-0.01147,-0.00422,-0.011,-0.01028,-0.00214,-0.01582,-0.00454,-0.01148,0.01724,-0.01271,-0.07709,-0.02668,0.00672,0.0,0.0,0.0,0.0,0.0,0.0,0.00626,0.00626,0.00918,-0.02285,0.02442,-0.00183,-0.03333,-0.05038,-0.03688,-0.0362,-0.05727,-0.06677,-0.07006,-0.09382,-0.11697,-0.09229,-0.04388,-0.02655,-0.04647,-0.04432,-0.0113,0.0159,0.01762,0.01034,0.0,0.0,0.0,0.0,0.00673,0.01018,0.01703,-0.01608,-0.00121,-0.0373,-0.04246,-0.04019,-0.04235,-0.04598,-0.07613,-0.07999,-0.10481,-0.12306,-0.13999,-0.10512,-0.08785,-0.07023,-0.06798,-0.0267,-0.00418,0.00044,0.0075,-0.00946,0.00626,0.0,0.0,0.00626,0.01034,0.00317,-0.02555,-0.00607,0.01217,-0.01275,-0.01307,-0.01532,-0.02677,-0.04906,-0.06045,-0.07682,-0.09354,-0.10884,-0.09619,-0.07981,-0.05556,-0.05062,-0.062,-0.05667,-0.00992,-0.03054,-0.03731,-0.01528,0.00195,0.0,0.0,0.0,0.01429,-0.00047,-0.01016,-0.00389,-0.01091,-0.01492,-0.02569,-0.02908,-0.04066,-0.04699,-0.04759,-0.03027,-0.01759,0.00317,0.03221,0.06085,0.07935,0.06712,0.0301,-0.00866,0.004,-0.00435,0.00636,-0.0096,-0.03939,-0.02563,0.0,0.00626,0.01103,0.0081,-0.01852,-0.0171,-0.03265,-0.03638,-0.05194,-0.04905,-0.04055,-0.03765,-0.02062,-0.00496,0.04239,0.07591,0.09412,0.08509,0.06984,0.05901,0.03996,0.00329,0.0099,0.02049,0.02422,-0.00703,-0.00321,0.01266,0.0,0.01881,0.01026,0.01299,-0.01663,-0.00567,-0.0207,-0.03683,-0.05104,-0.05159,-0.02348,-0.03069,-0.03521,-0.00988,0.02394,0.04292,0.04749,0.02725,0.02157,0.01438,-0.00019,-0.01941,-0.01662,0.01622,0.03464,0.01067,0.00634,0.01684,-0.02518,0.01488,-0.00644,-0.01054,-0.00814,-0.01864,-0.01685,-0.02713,-0.04614,-0.04523,-0.05419,-0.0754,-0.05757,-0.03679,-0.01797,-0.00227,-0.00938,-0.02656,-0.00535,-0.01491,-0.03369,-0.04311,-0.0255,0.00664,0.02294,0.01681,0.00208,-0.00323,0.0103,0.01462,-0.01761,-0.02958,-0.04183,-0.05167,-0.06495,-0.07393,-0.07556,-0.08217,-0.08835,-0.08504,-0.05218,-0.05678,-0.00918,0.00685,-0.01091,-0.00295,0.01339,-0.02749,-0.04011,-0.05975,-0.04999,-0.03424,-0.00057,0.01744,0.037,0.00243,0.01081,-0.00504,-0.0172,-0.03407,-0.07292,-0.09417,-0.09898,-0.09541,-0.12705,-0.1089,-0.08552,-0.03138,0.00216,0.01907,0.04705,0.04166,0.02048,0.04308,0.04596,-0.02761,-0.0705,-0.09249,-0.07697,-0.08399,-0.02779,0.02704,-0.00119,0.01157,0.01004,-0.03744,-0.02652,-0.04743,-0.09772,-0.11689,-0.1309,-0.14781,-0.15393,-0.11616,-0.04895,0.0577,0.11372,0.1268,0.11652,0.09294,0.08828,0.10776,0.05532,-0.06353,-0.11488,-0.13827,-0.11268,-0.11088,-0.05515,-0.00181,-0.00538,0.01395,0.00626,-0.01613,-0.01111,-0.03261,-0.08038,-0.13865,-0.17497,-0.19464,-0.18872,-0.12563,-0.03229,0.10668,0.19341,0.20154,0.17983,0.1689,0.15641,0.11463,0.01481,-0.11408,-0.17019,-0.18311,-0.17181,-0.13567,-0.10543,-0.04266,0.02062,0.00855,0.00626,0.01209,0.02143,-0.02281,-0.07374,-0.15538,-0.22265,-0.22679,-0.22337,-0.15691,-0.06014,0.09865,0.19757,0.23293,0.23471,0.2183,0.16427,0.0529,-0.07328,-0.18692,-0.22471,-0.24466,-0.21738,-0.15917,-0.10632,-0.02981,-0.02756,-0.02419,0.0,0.00695,0.0182,-0.01781,-0.0732,-0.17657,-0.26363,-0.27455,-0.26105,-0.20321,-0.09813,0.05804,0.16018,0.22508,0.22294,0.18401,0.08926,-0.04682,-0.17286,-0.23893,-0.26029,-0.25612,-0.22632,-0.18163,-0.09283,-0.00433,-0.01327,0.00472,0.0,0.0,0.00377,-0.03885,-0.07757,-0.18664,-0.28028,-0.28595,-0.28841,-0.23144,-0.11817,0.01011,0.09352,0.14069,0.14588,0.09643,0.00401,-0.10817,-0.19158,-0.23677,-0.26386,-0.26074,-0.22772,-0.1852,-0.10372,0.00197,-0.00272,-0.00368,0.0,0.0087,-0.00047,-0.00951,-0.07802,-0.19855,-0.26542,-0.27639,-0.27559,-0.21788,-0.0909,0.02362,0.06231,0.07067,0.06759,0.0499,-0.01349,-0.10418,-0.16148,-0.20661,-0.24293,-0.26574,-0.2176,-0.15825,-0.11176,-0.03441,-0.02637,-0.01268,0.0,0.00998,-0.00583,-0.01512,-0.08125,-0.18675,-0.23393,-0.24471,-0.2143,-0.14844,-0.01541,0.0478,0.06485,0.03743,0.03802,0.03471,-0.03119,-0.10388,-0.15612,-0.19417,-0.22934,-0.25606,-0.18057,-0.14493,-0.11158,-0.05771,-0.04181,-0.00369,0.00626,-0.01907,0.01922,-0.03306,-0.08363,-0.15237,-0.20348,-0.19153,-0.13979,-0.05856,0.02717,0.0575,0.02948,0.00138,0.00922,-0.00661,-0.06693,-0.11498,-0.13479,-0.18652,-0.21128,-0.20265,-0.15942,-0.13082,-0.10492,-0.03791,-0.00586,0.0026,0.0,-0.01974,0.02052,-0.00929,-0.08466,-0.13111,-0.15009,-0.1197,-0.07971,-0.0282,0.00868,-0.00381,-0.03836,-0.05122,-0.04153,-0.06322,-0.09106,-0.11878,-0.14174,-0.18427,-0.18213,-0.16365,-0.13238,-0.09686,-0.0579,-0.03306,-0.00174,0.00879,0.0,0.00564,0.0092,-0.01735,-0.0607,-0.09908,-0.10391,-0.08777,-0.06185,-0.04043,-0.03966,-0.0523,-0.0823,-0.08371,-0.07322,-0.07258,-0.09411,-0.12233,-0.12627,-0.13463,-0.14562,-0.1334,-0.10216,-0.06398,-0.0383,-0.01167,-0.00631,0.00626,-0.02499,0.01017,-0.01024,-0.02679,-0.03173,-0.05915,-0.05652,-0.04681,-0.02736,-0.01964,-0.033,-0.02847,-0.0286,-0.01845,-0.01669,-0.02186,-0.03832,-0.07291,-0.08508,-0.08406,-0.08257,-0.07717,-0.05761,-0.06187,-0.05866,-0.01644,-0.02051,0.00626,-0.02499,-0.02088,0.00678,-0.01427,-0.04231,-0.03677,-0.01819,-0.0059,0.01434,0.02184,0.05823,0.09963,0.12697,0.12003,0.10803,0.07646,0.04431,-0.00194,-0.01369,-0.01597,-0.02305,-0.02604,-0.0138,-0.04983,-0.06644,-0.01461,0.01273,0.00626,0.0,0.0,-0.00507,0.00137,-0.01706,-0.0188,0.01673,0.04931,0.05025,0.06536,0.12005,0.15885,0.18707,0.16524,0.14218,0.12456,0.08174,0.0269,-0.00207,0.00749,0.00289,-0.00604,0.00581,-0.0034,-0.01981,0.00806,0.01487,0.0,0.0,0.0,0.01238,-0.01799,-0.01914,-0.03386,0.00173,0.03986,0.05116,0.09048,0.10933,0.1264,0.12133,0.09752,0.08676,0.07924,0.0488,0.0103,-0.00117,-0.00221,-0.01228,0.00811,0.01004,0.01243,0.0086,0.01466,0.00729,0.0,0.0,0.0,-0.04082,-0.01354,-0.01614,-0.02557,-0.02831,-0.01603,-0.0239,-0.00716,0.00319,0.00581,-0.02374,-0.03933,-0.03402,-0.03343,-0.02115,-0.01585,-0.0355,-0.03963,-0.0242,-0.00409,-0.01037,0.00935,0.01677,0.0087,0.00626,0.0,0.0,0.0,0.0,0.0,0.01842,0.00198,-0.00362,-0.00905,0.02669,0.03568,0.02132,0.00065,-0.01189,-0.03529,-0.0373,-0.01632,-0.00935,-0.0183,-0.03569,-0.06815,-0.04656,-0.01812,-0.04277,-0.01698,0.00788,0.00626,0.0,0.0,0.0,0.0,0.0,0.0,0.0,-0.00674,-0.01196,0.00182,0.01457,0.02404,-0.00476,-0.02115,-0.03327,-0.02683,-0.03024,-0.00621,0.02096,0.02458,-0.00748
-0.05741,0.01569,0.01444,0.01167,0.00885,0.0,0.0,0.0,0.0,-1.30294,0.0,0.0,0.0,0.0,0.0,0.0,0.0,0.0,0.0,0.0,0.0,0.0,0.00705,0.00918,0.00651,0.00651,0.0,0.0,0.0,0.0,0.0,0.0,0.0,0.0,0.0,0.0,0.0,0.0,0.0,0.0,0.0,0.0,0.0,0.00651,0.01244,0.01576,0.02177,-0.01026,-0.01589,-0.01032,-0.00312,-0.01107,-0.01005,-0.00117,-0.01962,-0.00913,-0.01308,0.01945,0.00091,-0.07381,-0.03105,0.00699,0.0,0.0,0.0,0.0,0.0,0.0,0.00651,0.00651,0.00955,-0.02502,0.02541,-0.00129,-0.03069,-0.04582,-0.03391,-0.03547,-0.0575,-0.06868,-0.07167,-0.09773,-0.12874,-0.10849,-0.05822,-0.04924,-0.07436,-0.06813,-0.01511,0.01683,0.01833,0.01076,0.0,0.0,0.0,0.0,0.007,0.0106,0.01772,-0.02436,-0.00435,-0.052,-0.07831,-0.08046,-0.0886,-0.1016,-0.13618,-0.13338,-0.15233,-0.17583,-0.19191,-0.15084,-0.13209,-0.11942,-0.11951,-0.06912,-0.04714,-0.04852,-0.02876,-0.0562,0.00651,0.0,0.0,0.00651,0.01076,-0.01361,-0.02498,-0.02778,-0.00975,-0.05731,-0.07206,-0.08802,-0.11462,-0.14829,-0.16768,-0.20144,-0.24204,-0.26229,-0.24425,-0.20789,-0.18057,-0.16291,-0.15636,-0.12297,-0.06484,-0.0719,-0.04947,-0.02972,0.00263,0.0,0.0,0.0,0.01487,-0.01289,0.00021,-0.02063,-0.04347,-0.07097,-0.10414,-0.11565,-0.14059,-0.16755,-0.19922,-0.24193,-0.27098,-0.29221,-0.27612,-0.23881,-0.19926,-0.17509,-0.16172,-0.1356,-0.08815,-0.06298,-0.01961,-0.01774,-0.01675,-0.02481,0.0,0.00651,0.00935,0.01375,-0.00814,-0.02795,-0.06107,-0.09415,-0.1218,-0.12407,-0.12806,-0.15775,-0.17676,-0.16176,-0.11613,-0.07513,-0.06369,-0.0955,-0.11577,-0.11837,-0.12161,-0.14254,-0.09891,-0.06012,-0.00756,-0.01305,-0.00022,0.01343,0.0,0.01957,0.00929,0.01252,-0.01797,-0.01288,-0.04711,-0.08682,-0.10489,-0.12548,-0.10684,-0.09753,-0.06529,0.02441,0.11459,0.16328,0.15193,0.06543,-0.00576,-0.05234,-0.08957,-0.13058,-0.12785,-0.06025,0.00518,0.01799,0.02106,0.01753,-0.02658,0.01594,-0.00463,-0.00865,-0.01304,-0.03337,-0.052,-0.07729,-0.08399,-0.08065,-0.05316,-0.02233,0.03414,0.08159,0.12128,0.14947,0.14179,0.08668,0.04885,-0.02366,-0.082,-0.12764,-0.12621,-0.0594,0.01019,0.01651,0.01758,-0.01384,0.01072,0.01636,-0.01635,-0.02414,-0.05379,-0.06773,-0.07346,-0.08573,-0.04446,-0.01962,0.00331,0.02065,0.01983,-0.00682,0.03582,0.03563,0.05179,0.07423,0.06979,0.00253,-0.06276,-0.13158,-0.13006,-0.06774,-0.01661,-0.00814,0.00274,0.00444,0.01125,-0.00374,-0.0138,-0.02528,-0.05411,-0.05139,-0.05011,-0.02582,0.01498,0.04138,0.02951,0.0048,-0.04006,-0.04202,-0.0265,-0.0148,0.03607,0.09798,0.09376,0.0204,-0.07236,-0.13353,-0.12402,-0.09562,-0.04569,0.00244,0.00758,0.01298,0.01045,-0.03251,-0.01894,-0.02268,-0.04836,-0.02191,-0.01062,0.01963,0.0681,0.06582,0.01973,-0.03078,-0.08222,-0.06496,-0.02093,0.02134,0.07657,0.12343,0.11018,0.01885,-0.08162,-0.14725,-0.12537,-0.10291,-0.06203,-0.00333,0.00654,0.01452,0.00651,-0.01475,-0.0062,-0.00069,-0.01896,-0.0074,0.01464,0.0549,0.07861,0.05806,-0.0151,-0.06215,-0.09217,-0.0548,0.02532,0.08257,0.11232,0.13282,0.11725,0.01366,-0.08495,-0.15632,-0.13992,-0.10867,-0.08943,-0.02308,0.02411,0.00922,0.00651,0.01258,0.02302,0.01149,0.00308,0.00015,0.01284,0.04835,0.06055,0.03914,-0.01464,-0.04529,-0.03174,0.04041,0.11656,0.14201,0.14826,0.14311,0.09068,-0.01253,-0.12716,-0.19223,-0.17473,-0.13626,-0.08945,-0.02647,-0.02115,-0.02294,0.0,0.00723,0.01925,0.01603,0.00267,-0.03188,-0.04512,-0.02766,0.014,0.02864,0.00547,0.02005,0.02874,0.10467,0.14633,0.15663,0.14205,0.13107,0.02913,-0.11013,-0.19587,-0.22069,-0.19804,-0.15818,-0.08538,-0.01192,-0.02123,0.00505,0.0,0.0,0.00163,-0.01572,-0.01147,-0.07896,-0.12397,-0.1013,-0.05069,-0.00918,0.02177,0.03885,0.06519,0.08143,0.0942,0.13318,0.14099,0.11276,-0.02867,-0.19497,-0.26022,-0.25286,-0.2072,-0.15899,-0.10051,-0.00838,0.00216,0.00168,0.0,0.00905,-0.0173,-0.00156,-0.03505,-0.15018,-0.19113,-0.17454,-0.1304,-0.06951,-0.01103,0.03532,0.03781,0.01053,0.04483,0.10238,0.15021,0.07716,-0.07799,-0.23285,-0.27784,-0.27278,-0.20025,-0.14435,-0.10767,-0.03909,-0.01773,-0.00305,0.0,0.01039,-0.02901,-0.0219,-0.08053,-0.19041,-0.23434,-0.23858,-0.21981,-0.19186,-0.11127,-0.06756,-0.0431,-0.02985,0.02977,0.12015,0.12312,0.02344,-0.12696,-0.24541,-0.2888,-0.27664,-0.17357,-0.13936,-0.11289,-0.05651,-0.04242,7e-05,0.00651,-0.01868,0.01174,-0.04705,-0.10277,-0.20087,-0.26208,-0.2723,-0.26484,-0.25677,-0.20161,-0.12919,-0.09574,-0.04699,0.03357,0.07159,0.03465,-0.06533,-0.158,-0.25656,-0.2897,-0.24154,-0.17464,-0.14444,-0.11505,-0.04617,-0.01118,0.00446,0.0,-0.01938,0.01493,-0.02048,-0.11923,-0.19117,-0.24474,-0.25652,-0.28277,-0.29064,-0.25231,-0.17971,-0.12213,-0.061,-0.01366,-0.00886,-0.06459,-0.12937,-0.19483,-0.25665,-0.26495,-0.21683,-0.17524,-0.12997,-0.07174,-0.03685,0.00248,0.00914,0.0,0.00607,-0.00237,-0.03756,-0.10517,-0.1705,-0.22056,-0.26331,-0.2971,-0.30464,-0.28442,-0.21408,-0.15815,-0.10068,-0.08543,-0.08724,-0.14006,-0.16676,-0.18799,-0.21046,-0.22088,-0.18719,-0.16218,-0.1102,-0.05701,-0.01271,-0.02947,0.00651,-0.02474,0.01067,-0.03351,-0.04836,-0.06082,-0.13324,-0.18224,-0.23811,-0.26951,-0.27954,-0.28274,-0.23223,-0.17278,-0.12884,-0.09983,-0.09847,-0.10666,-0.11347,-0.14431,-0.15607,-0.13405,-0.12466,-0.11026,-0.10299,-0.07945,-0.02539,-0.05281,0.00651,-0.02474,-0.02055,-0.01889,-0.03598,-0.05233,-0.09707,-0.13942,-0.18361,-0.20157,-0.20253,-0.18219,-0.14143,-0.09843,-0.06938,-0.04322,-0.0347,-0.02594,-0.02538,-0.03729,-0.0431,-0.03436,-0.03745,-0.02825,-0.07973,-0.09477,-0.05287,0.01282,0.00651,0.0,0.0,-0.01129,-0.00698,-0.01329,-0.03941,-0.04904,-0.08052,-0.10391,-0.08191,-0.05065,-0.02607,-0.00431,0.00319,0.02824,0.04681,0.0536,0.06412,0.06456,0.05331,0.04513,0.03584,0.03149,-0.00115,-0.02122,-0.01417,0.01548,0.0,0.0,0.0,0.01288,-0.02172,-0.01228,0.00198,0.02288,0.02882,0.02783,0.04544,0.05624,0.06809,0.09422,0.07824,0.12102,0.14508,0.17102,0.17115,0.14234,0.12308,0.09156,0.07482,0.04821,0.05036,0.05368,0.01525,0.00758,0.0,0.0,0.0,0.06437,-0.01269,-0.02516,0.02914,0.03686,0.05669,0.06498,0.10074,0.1265,0.14078,0.15935,0.14288,0.19316,0.21313,0.24453,0.25205,0.21979,0.15544,0.09107,0.07922,0.04699,0.04537,0.01746,0.00906,0.00651,0.0,0.0,0.0,0.0,0.0,0.01917,0.047,0.02495,0.00043,0.02607,0.02871,0.05201,0.05978,0.02077,-0.0057,0.02478,0.05883,0.12893,0.17687,0.13356,0.11124,0.06358,0.04003,0.02352,0.03019,0.0082,0.00651,0.0,0.0,0.0,0.0,0.0,0.0,0.0,-0.00671,-0.02281,-0.01767,0.0146,0.02648,-0.01345,-0.04123,-0.0702,-0.05707,-0.04176,-0.01449,0.02091,0.04175
